digraph Tree {
node [shape=box, style="filled, rounded", color="black", fontname="helvetica"] ;
edge [fontname="helvetica"] ;
0 [label="preceded_by_same_letter <= 0.5\ngini = 0.957\nsamples = 59\nvalue = [7, 1, 1, 1, 1, 3, 1, 1, 1, 1, 1, 3, 1, 1\n1, 1, 1, 1, 1, 1, 1, 1, 1, 1, 5, 1, 1, 1\n1, 1, 3, 1, 1, 1, 1, 3, 1, 3, 1]\nclass = ", fillcolor="#fefaf8"] ;
1 [label="letter <= 23.5\ngini = 0.962\nsamples = 52\nvalue = [0, 1, 1, 1, 1, 3, 1, 1, 1, 1, 1, 3, 1, 1\n1, 1, 1, 1, 1, 1, 1, 1, 1, 1, 5, 1, 1, 1\n1, 1, 3, 1, 1, 1, 1, 3, 1, 3, 1]\nclass = O", fillcolor="#f8f7fe"] ;
0 -> 1 [labeldistance=2.5, labelangle=45, headlabel="True"] ;
2 [label="letter <= 22.5\ngini = 0.959\nsamples = 47\nvalue = [0, 1, 1, 1, 1, 3, 1, 1, 1, 1, 1, 3, 1, 1\n1, 1, 1, 1, 1, 0, 1, 1, 1, 1, 5, 1, 1, 1\n1, 1, 3, 1, 1, 1, 1, 3, 1, 0, 0]\nclass = O", fillcolor="#f7f6fe"] ;
1 -> 2 ;
3 [label="letter <= 18.5\ngini = 0.955\nsamples = 42\nvalue = [0, 1, 1, 1, 1, 3, 1, 1, 1, 1, 1, 3, 1, 1\n1, 1, 1, 1, 0, 0, 1, 1, 1, 1, 5, 1, 1, 1\n1, 1, 3, 1, 1, 1, 1, 0, 0, 0, 0]\nclass = O", fillcolor="#f6f5fe"] ;
2 -> 3 ;
4 [label="is_vowel <= 0.5\ngini = 0.943\nsamples = 34\nvalue = [0, 1, 1, 1, 1, 3, 1, 1, 1, 1, 1, 3, 1, 0\n1, 1, 1, 0, 0, 0, 1, 1, 1, 1, 5, 1, 1, 1\n1, 1, 0, 0, 0, 1, 0, 0, 0, 0, 0]\nclass = O", fillcolor="#f3f2fd"] ;
3 -> 4 ;
5 [label="letter <= 1.5\ngini = 0.933\nsamples = 15\nvalue = [0, 0, 1, 1, 1, 0, 0, 1, 1, 1, 1, 0, 0, 0\n0, 0, 0, 0, 0, 0, 1, 1, 1, 1, 0, 0, 1, 1\n1, 1, 0, 0, 0, 0, 0, 0, 0, 0, 0]\nclass = B", fillcolor="#ffffff"] ;
4 -> 5 ;
6 [label="gini = 0.0\nsamples = 1\nvalue = [0, 0, 1, 0, 0, 0, 0, 0, 0, 0, 0, 0, 0, 0\n0, 0, 0, 0, 0, 0, 0, 0, 0, 0, 0, 0, 0, 0\n0, 0, 0, 0, 0, 0, 0, 0, 0, 0, 0]\nclass = B", fillcolor="#e5b439"] ;
5 -> 6 ;
7 [label="letter <= 3.0\ngini = 0.929\nsamples = 14\nvalue = [0, 0, 0, 1, 1, 0, 0, 1, 1, 1, 1, 0, 0, 0\n0, 0, 0, 0, 0, 0, 1, 1, 1, 1, 0, 0, 1, 1\n1, 1, 0, 0, 0, 0, 0, 0, 0, 0, 0]\nclass = D", fillcolor="#ffffff"] ;
5 -> 7 ;
8 [label="gini = 0.0\nsamples = 1\nvalue = [0, 0, 0, 1, 0, 0, 0, 0, 0, 0, 0, 0, 0, 0\n0, 0, 0, 0, 0, 0, 0, 0, 0, 0, 0, 0, 0, 0\n0, 0, 0, 0, 0, 0, 0, 0, 0, 0, 0]\nclass = D", fillcolor="#e5ce39"] ;
7 -> 8 ;
9 [label="letter <= 4.5\ngini = 0.923\nsamples = 13\nvalue = [0, 0, 0, 0, 1, 0, 0, 1, 1, 1, 1, 0, 0, 0\n0, 0, 0, 0, 0, 0, 1, 1, 1, 1, 0, 0, 1, 1\n1, 1, 0, 0, 0, 0, 0, 0, 0, 0, 0]\nclass = DŽ", fillcolor="#ffffff"] ;
7 -> 9 ;
10 [label="gini = 0.0\nsamples = 1\nvalue = [0, 0, 0, 0, 0, 0, 0, 1, 0, 0, 0, 0, 0, 0\n0, 0, 0, 0, 0, 0, 0, 0, 0, 0, 0, 0, 0, 0\n0, 0, 0, 0, 0, 0, 0, 0, 0, 0, 0]\nclass = F", fillcolor="#92e539"] ;
9 -> 10 ;
11 [label="letter <= 5.5\ngini = 0.917\nsamples = 12\nvalue = [0, 0, 0, 0, 1, 0, 0, 0, 1, 1, 1, 0, 0, 0\n0, 0, 0, 0, 0, 0, 1, 1, 1, 1, 0, 0, 1, 1\n1, 1, 0, 0, 0, 0, 0, 0, 0, 0, 0]\nclass = DŽ", fillcolor="#ffffff"] ;
9 -> 11 ;
12 [label="gini = 0.0\nsamples = 1\nvalue = [0, 0, 0, 0, 0, 0, 0, 0, 1, 0, 0, 0, 0, 0\n0, 0, 0, 0, 0, 0, 0, 0, 0, 0, 0, 0, 0, 0\n0, 0, 0, 0, 0, 0, 0, 0, 0, 0, 0]\nclass = G", fillcolor="#78e539"] ;
11 -> 12 ;
13 [label="letter <= 6.5\ngini = 0.909\nsamples = 11\nvalue = [0, 0, 0, 0, 1, 0, 0, 0, 0, 1, 1, 0, 0, 0\n0, 0, 0, 0, 0, 0, 1, 1, 1, 1, 0, 0, 1, 1\n1, 1, 0, 0, 0, 0, 0, 0, 0, 0, 0]\nclass = DŽ", fillcolor="#ffffff"] ;
11 -> 13 ;
14 [label="gini = 0.0\nsamples = 1\nvalue = [0, 0, 0, 0, 0, 0, 0, 0, 0, 1, 0, 0, 0, 0\n0, 0, 0, 0, 0, 0, 0, 0, 0, 0, 0, 0, 0, 0\n0, 0, 0, 0, 0, 0, 0, 0, 0, 0, 0]\nclass = GB", fillcolor="#5be539"] ;
13 -> 14 ;
15 [label="letter <= 8.0\ngini = 0.9\nsamples = 10\nvalue = [0, 0, 0, 0, 1, 0, 0, 0, 0, 0, 1, 0, 0, 0\n0, 0, 0, 0, 0, 0, 1, 1, 1, 1, 0, 0, 1, 1\n1, 1, 0, 0, 0, 0, 0, 0, 0, 0, 0]\nclass = DŽ", fillcolor="#ffffff"] ;
13 -> 15 ;
16 [label="gini = 0.0\nsamples = 1\nvalue = [0, 0, 0, 0, 0, 0, 0, 0, 0, 0, 1, 0, 0, 0\n0, 0, 0, 0, 0, 0, 0, 0, 0, 0, 0, 0, 0, 0\n0, 0, 0, 0, 0, 0, 0, 0, 0, 0, 0]\nclass = H", fillcolor="#41e539"] ;
15 -> 16 ;
17 [label="letter <= 9.5\ngini = 0.889\nsamples = 9\nvalue = [0, 0, 0, 0, 1, 0, 0, 0, 0, 0, 0, 0, 0, 0\n0, 0, 0, 0, 0, 0, 1, 1, 1, 1, 0, 0, 1, 1\n1, 1, 0, 0, 0, 0, 0, 0, 0, 0, 0]\nclass = DŽ", fillcolor="#ffffff"] ;
15 -> 17 ;
18 [label="gini = 0.0\nsamples = 1\nvalue = [0, 0, 0, 0, 1, 0, 0, 0, 0, 0, 0, 0, 0, 0\n0, 0, 0, 0, 0, 0, 0, 0, 0, 0, 0, 0, 0, 0\n0, 0, 0, 0, 0, 0, 0, 0, 0, 0, 0]\nclass = DŽ", fillcolor="#e2e539"] ;
17 -> 18 ;
19 [label="letter <= 10.5\ngini = 0.875\nsamples = 8\nvalue = [0, 0, 0, 0, 0, 0, 0, 0, 0, 0, 0, 0, 0, 0\n0, 0, 0, 0, 0, 0, 1, 1, 1, 1, 0, 0, 1, 1\n1, 1, 0, 0, 0, 0, 0, 0, 0, 0, 0]\nclass = K", fillcolor="#ffffff"] ;
17 -> 19 ;
20 [label="gini = 0.0\nsamples = 1\nvalue = [0, 0, 0, 0, 0, 0, 0, 0, 0, 0, 0, 0, 0, 0\n0, 0, 0, 0, 0, 0, 1, 0, 0, 0, 0, 0, 0, 0\n0, 0, 0, 0, 0, 0, 0, 0, 0, 0, 0]\nclass = K", fillcolor="#3992e5"] ;
19 -> 20 ;
21 [label="letter <= 11.5\ngini = 0.857\nsamples = 7\nvalue = [0, 0, 0, 0, 0, 0, 0, 0, 0, 0, 0, 0, 0, 0\n0, 0, 0, 0, 0, 0, 0, 1, 1, 1, 0, 0, 1, 1\n1, 1, 0, 0, 0, 0, 0, 0, 0, 0, 0]\nclass = L", fillcolor="#ffffff"] ;
19 -> 21 ;
22 [label="gini = 0.0\nsamples = 1\nvalue = [0, 0, 0, 0, 0, 0, 0, 0, 0, 0, 0, 0, 0, 0\n0, 0, 0, 0, 0, 0, 0, 1, 0, 0, 0, 0, 0, 0\n0, 0, 0, 0, 0, 0, 0, 0, 0, 0, 0]\nclass = L", fillcolor="#3978e5"] ;
21 -> 22 ;
23 [label="letter <= 12.5\ngini = 0.833\nsamples = 6\nvalue = [0, 0, 0, 0, 0, 0, 0, 0, 0, 0, 0, 0, 0, 0\n0, 0, 0, 0, 0, 0, 0, 0, 1, 1, 0, 0, 1, 1\n1, 1, 0, 0, 0, 0, 0, 0, 0, 0, 0]\nclass = M", fillcolor="#ffffff"] ;
21 -> 23 ;
24 [label="gini = 0.0\nsamples = 1\nvalue = [0, 0, 0, 0, 0, 0, 0, 0, 0, 0, 0, 0, 0, 0\n0, 0, 0, 0, 0, 0, 0, 0, 1, 0, 0, 0, 0, 0\n0, 0, 0, 0, 0, 0, 0, 0, 0, 0, 0]\nclass = M", fillcolor="#395be5"] ;
23 -> 24 ;
25 [label="letter <= 14.0\ngini = 0.8\nsamples = 5\nvalue = [0, 0, 0, 0, 0, 0, 0, 0, 0, 0, 0, 0, 0, 0\n0, 0, 0, 0, 0, 0, 0, 0, 0, 1, 0, 0, 1, 1\n1, 1, 0, 0, 0, 0, 0, 0, 0, 0, 0]\nclass = N", fillcolor="#ffffff"] ;
23 -> 25 ;
26 [label="gini = 0.0\nsamples = 1\nvalue = [0, 0, 0, 0, 0, 0, 0, 0, 0, 0, 0, 0, 0, 0\n0, 0, 0, 0, 0, 0, 0, 0, 0, 1, 0, 0, 0, 0\n0, 0, 0, 0, 0, 0, 0, 0, 0, 0, 0]\nclass = N", fillcolor="#3941e5"] ;
25 -> 26 ;
27 [label="letter <= 15.5\ngini = 0.75\nsamples = 4\nvalue = [0, 0, 0, 0, 0, 0, 0, 0, 0, 0, 0, 0, 0, 0\n0, 0, 0, 0, 0, 0, 0, 0, 0, 0, 0, 0, 1, 1\n1, 1, 0, 0, 0, 0, 0, 0, 0, 0, 0]\nclass = P", fillcolor="#ffffff"] ;
25 -> 27 ;
28 [label="gini = 0.0\nsamples = 1\nvalue = [0, 0, 0, 0, 0, 0, 0, 0, 0, 0, 0, 0, 0, 0\n0, 0, 0, 0, 0, 0, 0, 0, 0, 0, 0, 0, 1, 0\n0, 0, 0, 0, 0, 0, 0, 0, 0, 0, 0]\nclass = P", fillcolor="#7e39e5"] ;
27 -> 28 ;
29 [label="letter <= 16.5\ngini = 0.667\nsamples = 3\nvalue = [0, 0, 0, 0, 0, 0, 0, 0, 0, 0, 0, 0, 0, 0\n0, 0, 0, 0, 0, 0, 0, 0, 0, 0, 0, 0, 0, 1\n1, 1, 0, 0, 0, 0, 0, 0, 0, 0, 0]\nclass = R", fillcolor="#ffffff"] ;
27 -> 29 ;
30 [label="gini = 0.0\nsamples = 1\nvalue = [0, 0, 0, 0, 0, 0, 0, 0, 0, 0, 0, 0, 0, 0\n0, 0, 0, 0, 0, 0, 0, 0, 0, 0, 0, 0, 0, 1\n0, 0, 0, 0, 0, 0, 0, 0, 0, 0, 0]\nclass = R", fillcolor="#9a39e5"] ;
29 -> 30 ;
31 [label="letter <= 17.5\ngini = 0.5\nsamples = 2\nvalue = [0, 0, 0, 0, 0, 0, 0, 0, 0, 0, 0, 0, 0, 0\n0, 0, 0, 0, 0, 0, 0, 0, 0, 0, 0, 0, 0, 0\n1, 1, 0, 0, 0, 0, 0, 0, 0, 0, 0]\nclass = S", fillcolor="#ffffff"] ;
29 -> 31 ;
32 [label="gini = 0.0\nsamples = 1\nvalue = [0, 0, 0, 0, 0, 0, 0, 0, 0, 0, 0, 0, 0, 0\n0, 0, 0, 0, 0, 0, 0, 0, 0, 0, 0, 0, 0, 0\n1, 0, 0, 0, 0, 0, 0, 0, 0, 0, 0]\nclass = S", fillcolor="#b439e5"] ;
31 -> 32 ;
33 [label="gini = 0.0\nsamples = 1\nvalue = [0, 0, 0, 0, 0, 0, 0, 0, 0, 0, 0, 0, 0, 0\n0, 0, 0, 0, 0, 0, 0, 0, 0, 0, 0, 0, 0, 0\n0, 1, 0, 0, 0, 0, 0, 0, 0, 0, 0]\nclass = T", fillcolor="#ce39e5"] ;
31 -> 33 ;
34 [label="letter <= 11.0\ngini = 0.859\nsamples = 19\nvalue = [0, 1, 0, 0, 0, 3, 1, 0, 0, 0, 0, 3, 1, 0\n1, 1, 1, 0, 0, 0, 0, 0, 0, 0, 5, 1, 0, 0\n0, 0, 0, 0, 0, 1, 0, 0, 0, 0, 0]\nclass = O", fillcolor="#e8e6fc"] ;
4 -> 34 ;
35 [label="letter <= 5.5\ngini = 0.857\nsamples = 14\nvalue = [0, 1, 0, 0, 0, 3, 1, 0, 0, 0, 0, 3, 1, 0\n1, 1, 0, 0, 0, 0, 0, 0, 0, 0, 2, 0, 0, 0\n0, 0, 0, 0, 0, 1, 0, 0, 0, 0, 0]\nclass = E", fillcolor="#ffffff"] ;
34 -> 35 ;
36 [label="letter <= 1.5\ngini = 0.82\nsamples = 10\nvalue = [0, 1, 0, 0, 0, 3, 1, 0, 0, 0, 0, 0, 0, 0\n1, 1, 0, 0, 0, 0, 0, 0, 0, 0, 2, 0, 0, 0\n0, 0, 0, 0, 0, 1, 0, 0, 0, 0, 0]\nclass = E", fillcolor="#f8fce6"] ;
35 -> 36 ;
37 [label="preceded_by_I <= 0.5\ngini = 0.72\nsamples = 5\nvalue = [0, 1, 0, 0, 0, 0, 0, 0, 0, 0, 0, 0, 0, 0\n1, 0, 0, 0, 0, 0, 0, 0, 0, 0, 2, 0, 0, 0\n0, 0, 0, 0, 0, 1, 0, 0, 0, 0, 0]\nclass = O", fillcolor="#d2cef8"] ;
36 -> 37 ;
38 [label="succeeded_by_same_letter <= 0.5\ngini = 0.625\nsamples = 4\nvalue = [0, 1, 0, 0, 0, 0, 0, 0, 0, 0, 0, 0, 0, 0\n0, 0, 0, 0, 0, 0, 0, 0, 0, 0, 2, 0, 0, 0\n0, 0, 0, 0, 0, 1, 0, 0, 0, 0, 0]\nclass = O", fillcolor="#c3bdf6"] ;
37 -> 38 ;
39 [label="preceded_by_N <= 0.5\ngini = 0.444\nsamples = 3\nvalue = [0, 1, 0, 0, 0, 0, 0, 0, 0, 0, 0, 0, 0, 0\n0, 0, 0, 0, 0, 0, 0, 0, 0, 0, 2, 0, 0, 0\n0, 0, 0, 0, 0, 0, 0, 0, 0, 0, 0]\nclass = O", fillcolor="#a49cf2"] ;
38 -> 39 ;
40 [label="succeeded_by_N <= 0.5\ngini = 0.5\nsamples = 2\nvalue = [0, 1, 0, 0, 0, 0, 0, 0, 0, 0, 0, 0, 0, 0\n0, 0, 0, 0, 0, 0, 0, 0, 0, 0, 1, 0, 0, 0\n0, 0, 0, 0, 0, 0, 0, 0, 0, 0, 0]\nclass = A", fillcolor="#ffffff"] ;
39 -> 40 ;
41 [label="gini = 0.0\nsamples = 1\nvalue = [0, 1, 0, 0, 0, 0, 0, 0, 0, 0, 0, 0, 0, 0\n0, 0, 0, 0, 0, 0, 0, 0, 0, 0, 0, 0, 0, 0\n0, 0, 0, 0, 0, 0, 0, 0, 0, 0, 0]\nclass = A", fillcolor="#e59a39"] ;
40 -> 41 ;
42 [label="gini = 0.0\nsamples = 1\nvalue = [0, 0, 0, 0, 0, 0, 0, 0, 0, 0, 0, 0, 0, 0\n0, 0, 0, 0, 0, 0, 0, 0, 0, 0, 1, 0, 0, 0\n0, 0, 0, 0, 0, 0, 0, 0, 0, 0, 0]\nclass = O", fillcolor="#4a39e5"] ;
40 -> 42 ;
43 [label="gini = 0.0\nsamples = 1\nvalue = [0, 0, 0, 0, 0, 0, 0, 0, 0, 0, 0, 0, 0, 0\n0, 0, 0, 0, 0, 0, 0, 0, 0, 0, 1, 0, 0, 0\n0, 0, 0, 0, 0, 0, 0, 0, 0, 0, 0]\nclass = O", fillcolor="#4a39e5"] ;
39 -> 43 ;
44 [label="gini = 0.0\nsamples = 1\nvalue = [0, 0, 0, 0, 0, 0, 0, 0, 0, 0, 0, 0, 0, 0\n0, 0, 0, 0, 0, 0, 0, 0, 0, 0, 0, 0, 0, 0\n0, 0, 0, 0, 0, 1, 0, 0, 0, 0, 0]\nclass = Ą", fillcolor="#e53992"] ;
38 -> 44 ;
45 [label="gini = 0.0\nsamples = 1\nvalue = [0, 0, 0, 0, 0, 0, 0, 0, 0, 0, 0, 0, 0, 0\n1, 0, 0, 0, 0, 0, 0, 0, 0, 0, 0, 0, 0, 0\n0, 0, 0, 0, 0, 0, 0, 0, 0, 0, 0]\nclass = JA", fillcolor="#39e59a"] ;
37 -> 45 ;
46 [label="preceded_by_I <= 0.5\ngini = 0.56\nsamples = 5\nvalue = [0, 0, 0, 0, 0, 3, 1, 0, 0, 0, 0, 0, 0, 0\n0, 1, 0, 0, 0, 0, 0, 0, 0, 0, 0, 0, 0, 0\n0, 0, 0, 0, 0, 0, 0, 0, 0, 0, 0]\nclass = E", fillcolor="#e2f29c"] ;
36 -> 46 ;
47 [label="succeeded_by_same_letter <= 0.5\ngini = 0.375\nsamples = 4\nvalue = [0, 0, 0, 0, 0, 3, 1, 0, 0, 0, 0, 0, 0, 0\n0, 0, 0, 0, 0, 0, 0, 0, 0, 0, 0, 0, 0, 0\n0, 0, 0, 0, 0, 0, 0, 0, 0, 0, 0]\nclass = E", fillcolor="#d8ee7b"] ;
46 -> 47 ;
48 [label="gini = 0.0\nsamples = 3\nvalue = [0, 0, 0, 0, 0, 3, 0, 0, 0, 0, 0, 0, 0, 0\n0, 0, 0, 0, 0, 0, 0, 0, 0, 0, 0, 0, 0, 0\n0, 0, 0, 0, 0, 0, 0, 0, 0, 0, 0]\nclass = E", fillcolor="#c5e539"] ;
47 -> 48 ;
49 [label="gini = 0.0\nsamples = 1\nvalue = [0, 0, 0, 0, 0, 0, 1, 0, 0, 0, 0, 0, 0, 0\n0, 0, 0, 0, 0, 0, 0, 0, 0, 0, 0, 0, 0, 0\n0, 0, 0, 0, 0, 0, 0, 0, 0, 0, 0]\nclass = EE", fillcolor="#ace539"] ;
47 -> 49 ;
50 [label="gini = 0.0\nsamples = 1\nvalue = [0, 0, 0, 0, 0, 0, 0, 0, 0, 0, 0, 0, 0, 0\n0, 1, 0, 0, 0, 0, 0, 0, 0, 0, 0, 0, 0, 0\n0, 0, 0, 0, 0, 0, 0, 0, 0, 0, 0]\nclass = JE", fillcolor="#39e5b4"] ;
46 -> 50 ;
51 [label="succeeded_by_same_letter <= 0.5\ngini = 0.375\nsamples = 4\nvalue = [0, 0, 0, 0, 0, 0, 0, 0, 0, 0, 0, 3, 1, 0\n0, 0, 0, 0, 0, 0, 0, 0, 0, 0, 0, 0, 0, 0\n0, 0, 0, 0, 0, 0, 0, 0, 0, 0, 0]\nclass = I", fillcolor="#7bee86"] ;
35 -> 51 ;
52 [label="gini = 0.0\nsamples = 3\nvalue = [0, 0, 0, 0, 0, 0, 0, 0, 0, 0, 0, 3, 0, 0\n0, 0, 0, 0, 0, 0, 0, 0, 0, 0, 0, 0, 0, 0\n0, 0, 0, 0, 0, 0, 0, 0, 0, 0, 0]\nclass = I", fillcolor="#39e54a"] ;
51 -> 52 ;
53 [label="gini = 0.0\nsamples = 1\nvalue = [0, 0, 0, 0, 0, 0, 0, 0, 0, 0, 0, 0, 1, 0\n0, 0, 0, 0, 0, 0, 0, 0, 0, 0, 0, 0, 0, 0\n0, 0, 0, 0, 0, 0, 0, 0, 0, 0, 0]\nclass = II", fillcolor="#39e564"] ;
51 -> 53 ;
54 [label="succeeded_by_same_letter <= 0.5\ngini = 0.56\nsamples = 5\nvalue = [0, 0, 0, 0, 0, 0, 0, 0, 0, 0, 0, 0, 0, 0\n0, 0, 1, 0, 0, 0, 0, 0, 0, 0, 3, 1, 0, 0\n0, 0, 0, 0, 0, 0, 0, 0, 0, 0, 0]\nclass = O", fillcolor="#a49cf2"] ;
34 -> 54 ;
55 [label="preceded_by_I <= 0.5\ngini = 0.375\nsamples = 4\nvalue = [0, 0, 0, 0, 0, 0, 0, 0, 0, 0, 0, 0, 0, 0\n0, 0, 1, 0, 0, 0, 0, 0, 0, 0, 3, 0, 0, 0\n0, 0, 0, 0, 0, 0, 0, 0, 0, 0, 0]\nclass = O", fillcolor="#867bee"] ;
54 -> 55 ;
56 [label="gini = 0.0\nsamples = 3\nvalue = [0, 0, 0, 0, 0, 0, 0, 0, 0, 0, 0, 0, 0, 0\n0, 0, 0, 0, 0, 0, 0, 0, 0, 0, 3, 0, 0, 0\n0, 0, 0, 0, 0, 0, 0, 0, 0, 0, 0]\nclass = O", fillcolor="#4a39e5"] ;
55 -> 56 ;
57 [label="gini = 0.0\nsamples = 1\nvalue = [0, 0, 0, 0, 0, 0, 0, 0, 0, 0, 0, 0, 0, 0\n0, 0, 1, 0, 0, 0, 0, 0, 0, 0, 0, 0, 0, 0\n0, 0, 0, 0, 0, 0, 0, 0, 0, 0, 0]\nclass = JO", fillcolor="#39e5ce"] ;
55 -> 57 ;
58 [label="gini = 0.0\nsamples = 1\nvalue = [0, 0, 0, 0, 0, 0, 0, 0, 0, 0, 0, 0, 0, 0\n0, 0, 0, 0, 0, 0, 0, 0, 0, 0, 0, 1, 0, 0\n0, 0, 0, 0, 0, 0, 0, 0, 0, 0, 0]\nclass = OO", fillcolor="#6439e5"] ;
54 -> 58 ;
59 [label="is_vowel <= 0.5\ngini = 0.781\nsamples = 8\nvalue = [0, 0, 0, 0, 0, 0, 0, 0, 0, 0, 0, 0, 0, 1\n0, 0, 0, 1, 0, 0, 0, 0, 0, 0, 0, 0, 0, 0\n0, 0, 3, 1, 1, 0, 1, 0, 0, 0, 0]\nclass = U", fillcolor="#f8c6f7"] ;
3 -> 59 ;
60 [label="letter <= 20.5\ngini = 0.667\nsamples = 3\nvalue = [0, 0, 0, 0, 0, 0, 0, 0, 0, 0, 0, 0, 0, 1\n0, 0, 0, 0, 0, 0, 0, 0, 0, 0, 0, 0, 0, 0\n0, 0, 0, 0, 1, 0, 1, 0, 0, 0, 0]\nclass = J", fillcolor="#ffffff"] ;
59 -> 60 ;
61 [label="gini = 0.0\nsamples = 1\nvalue = [0, 0, 0, 0, 0, 0, 0, 0, 0, 0, 0, 0, 0, 0\n0, 0, 0, 0, 0, 0, 0, 0, 0, 0, 0, 0, 0, 0\n0, 0, 0, 0, 1, 0, 0, 0, 0, 0, 0]\nclass = V", fillcolor="#e539ac"] ;
60 -> 61 ;
62 [label="letter <= 21.5\ngini = 0.5\nsamples = 2\nvalue = [0, 0, 0, 0, 0, 0, 0, 0, 0, 0, 0, 0, 0, 1\n0, 0, 0, 0, 0, 0, 0, 0, 0, 0, 0, 0, 0, 0\n0, 0, 0, 0, 0, 0, 1, 0, 0, 0, 0]\nclass = J", fillcolor="#ffffff"] ;
60 -> 62 ;
63 [label="gini = 0.0\nsamples = 1\nvalue = [0, 0, 0, 0, 0, 0, 0, 0, 0, 0, 0, 0, 0, 1\n0, 0, 0, 0, 0, 0, 0, 0, 0, 0, 0, 0, 0, 0\n0, 0, 0, 0, 0, 0, 0, 0, 0, 0, 0]\nclass = J", fillcolor="#39e57e"] ;
62 -> 63 ;
64 [label="gini = 0.0\nsamples = 1\nvalue = [0, 0, 0, 0, 0, 0, 0, 0, 0, 0, 0, 0, 0, 0\n0, 0, 0, 0, 0, 0, 0, 0, 0, 0, 0, 0, 0, 0\n0, 0, 0, 0, 0, 0, 1, 0, 0, 0, 0]\nclass = Š", fillcolor="#e53978"] ;
62 -> 64 ;
65 [label="succeeded_by_same_letter <= 0.5\ngini = 0.56\nsamples = 5\nvalue = [0, 0, 0, 0, 0, 0, 0, 0, 0, 0, 0, 0, 0, 0\n0, 0, 0, 1, 0, 0, 0, 0, 0, 0, 0, 0, 0, 0\n0, 0, 3, 1, 0, 0, 0, 0, 0, 0, 0]\nclass = U", fillcolor="#f29cf0"] ;
59 -> 65 ;
66 [label="preceded_by_I <= 0.5\ngini = 0.375\nsamples = 4\nvalue = [0, 0, 0, 0, 0, 0, 0, 0, 0, 0, 0, 0, 0, 0\n0, 0, 0, 1, 0, 0, 0, 0, 0, 0, 0, 0, 0, 0\n0, 0, 3, 0, 0, 0, 0, 0, 0, 0, 0]\nclass = U", fillcolor="#ee7bec"] ;
65 -> 66 ;
67 [label="gini = 0.0\nsamples = 3\nvalue = [0, 0, 0, 0, 0, 0, 0, 0, 0, 0, 0, 0, 0, 0\n0, 0, 0, 0, 0, 0, 0, 0, 0, 0, 0, 0, 0, 0\n0, 0, 3, 0, 0, 0, 0, 0, 0, 0, 0]\nclass = U", fillcolor="#e539e2"] ;
66 -> 67 ;
68 [label="gini = 0.0\nsamples = 1\nvalue = [0, 0, 0, 0, 0, 0, 0, 0, 0, 0, 0, 0, 0, 0\n0, 0, 0, 1, 0, 0, 0, 0, 0, 0, 0, 0, 0, 0\n0, 0, 0, 0, 0, 0, 0, 0, 0, 0, 0]\nclass = JU", fillcolor="#39e2e5"] ;
66 -> 68 ;
69 [label="gini = 0.0\nsamples = 1\nvalue = [0, 0, 0, 0, 0, 0, 0, 0, 0, 0, 0, 0, 0, 0\n0, 0, 0, 0, 0, 0, 0, 0, 0, 0, 0, 0, 0, 0\n0, 0, 0, 1, 0, 0, 0, 0, 0, 0, 0]\nclass = UU", fillcolor="#e539c5"] ;
65 -> 69 ;
70 [label="preceded_by_I <= 0.5\ngini = 0.56\nsamples = 5\nvalue = [0, 0, 0, 0, 0, 0, 0, 0, 0, 0, 0, 0, 0, 0\n0, 0, 0, 0, 1, 0, 0, 0, 0, 0, 0, 0, 0, 0\n0, 0, 0, 0, 0, 0, 0, 3, 1, 0, 0]\nclass = Ẹ", fillcolor="#f29cad"] ;
2 -> 70 ;
71 [label="succeeded_by_same_letter <= 0.5\ngini = 0.375\nsamples = 4\nvalue = [0, 0, 0, 0, 0, 0, 0, 0, 0, 0, 0, 0, 0, 0\n0, 0, 0, 0, 0, 0, 0, 0, 0, 0, 0, 0, 0, 0\n0, 0, 0, 0, 0, 0, 0, 3, 1, 0, 0]\nclass = Ẹ", fillcolor="#ee7b92"] ;
70 -> 71 ;
72 [label="gini = 0.0\nsamples = 3\nvalue = [0, 0, 0, 0, 0, 0, 0, 0, 0, 0, 0, 0, 0, 0\n0, 0, 0, 0, 0, 0, 0, 0, 0, 0, 0, 0, 0, 0\n0, 0, 0, 0, 0, 0, 0, 3, 0, 0, 0]\nclass = Ẹ", fillcolor="#e5395b"] ;
71 -> 72 ;
73 [label="gini = 0.0\nsamples = 1\nvalue = [0, 0, 0, 0, 0, 0, 0, 0, 0, 0, 0, 0, 0, 0\n0, 0, 0, 0, 0, 0, 0, 0, 0, 0, 0, 0, 0, 0\n0, 0, 0, 0, 0, 0, 0, 0, 1, 0, 0]\nclass = ẸẸ", fillcolor="#e53941"] ;
71 -> 73 ;
74 [label="gini = 0.0\nsamples = 1\nvalue = [0, 0, 0, 0, 0, 0, 0, 0, 0, 0, 0, 0, 0, 0\n0, 0, 0, 0, 1, 0, 0, 0, 0, 0, 0, 0, 0, 0\n0, 0, 0, 0, 0, 0, 0, 0, 0, 0, 0]\nclass = JẸ", fillcolor="#39c5e5"] ;
70 -> 74 ;
75 [label="preceded_by_I <= 0.5\ngini = 0.56\nsamples = 5\nvalue = [0, 0, 0, 0, 0, 0, 0, 0, 0, 0, 0, 0, 0, 0\n0, 0, 0, 0, 0, 1, 0, 0, 0, 0, 0, 0, 0, 0\n0, 0, 0, 0, 0, 0, 0, 0, 0, 3, 1]\nclass = Ọ", fillcolor="#f2a49c"] ;
1 -> 75 ;
76 [label="succeeded_by_same_letter <= 0.5\ngini = 0.375\nsamples = 4\nvalue = [0, 0, 0, 0, 0, 0, 0, 0, 0, 0, 0, 0, 0, 0\n0, 0, 0, 0, 0, 0, 0, 0, 0, 0, 0, 0, 0, 0\n0, 0, 0, 0, 0, 0, 0, 0, 0, 3, 1]\nclass = Ọ", fillcolor="#ee867b"] ;
75 -> 76 ;
77 [label="gini = 0.0\nsamples = 3\nvalue = [0, 0, 0, 0, 0, 0, 0, 0, 0, 0, 0, 0, 0, 0\n0, 0, 0, 0, 0, 0, 0, 0, 0, 0, 0, 0, 0, 0\n0, 0, 0, 0, 0, 0, 0, 0, 0, 3, 0]\nclass = Ọ", fillcolor="#e54a39"] ;
76 -> 77 ;
78 [label="gini = 0.0\nsamples = 1\nvalue = [0, 0, 0, 0, 0, 0, 0, 0, 0, 0, 0, 0, 0, 0\n0, 0, 0, 0, 0, 0, 0, 0, 0, 0, 0, 0, 0, 0\n0, 0, 0, 0, 0, 0, 0, 0, 0, 0, 1]\nclass = ỌỌ", fillcolor="#e56439"] ;
76 -> 78 ;
79 [label="gini = 0.0\nsamples = 1\nvalue = [0, 0, 0, 0, 0, 0, 0, 0, 0, 0, 0, 0, 0, 0\n0, 0, 0, 0, 0, 1, 0, 0, 0, 0, 0, 0, 0, 0\n0, 0, 0, 0, 0, 0, 0, 0, 0, 0, 0]\nclass = JỌ", fillcolor="#39ace5"] ;
75 -> 79 ;
80 [label="gini = 0.0\nsamples = 7\nvalue = [7, 0, 0, 0, 0, 0, 0, 0, 0, 0, 0, 0, 0, 0\n0, 0, 0, 0, 0, 0, 0, 0, 0, 0, 0, 0, 0, 0\n0, 0, 0, 0, 0, 0, 0, 0, 0, 0, 0]\nclass = ", fillcolor="#e58139"] ;
0 -> 80 [labeldistance=2.5, labelangle=-45, headlabel="False"] ;
}
